digraph Tree {
node [shape=box, fontname="helvetica"] ;
edge [fontname="helvetica"] ;
0 [label="number_1 <= 2.5\nentropy = 2.459\nsamples = 12\nvalue = [2, 1, 3, 1, 3, 2]"] ;
1 [label="number_1 <= 1.5\nentropy = 1.0\nsamples = 6\nvalue = [0, 0, 3, 0, 3, 0]"] ;
0 -> 1 [labeldistance=2.5, labelangle=45, headlabel="True"] ;
2 [label="entropy = 0.0\nsamples = 3\nvalue = [0, 0, 3, 0, 0, 0]"] ;
1 -> 2 ;
3 [label="entropy = 0.0\nsamples = 3\nvalue = [0, 0, 0, 0, 3, 0]"] ;
1 -> 3 ;
4 [label="number_2 <= 2.5\nentropy = 1.918\nsamples = 6\nvalue = [2, 1, 0, 1, 0, 2]"] ;
0 -> 4 [labeldistance=2.5, labelangle=-45, headlabel="False"] ;
5 [label="entropy = 0.0\nsamples = 2\nvalue = [0, 0, 0, 0, 0, 2]"] ;
4 -> 5 ;
6 [label="number_1 <= 3.5\nentropy = 1.5\nsamples = 4\nvalue = [2, 1, 0, 1, 0, 0]"] ;
4 -> 6 ;
7 [label="entropy = 0.0\nsamples = 2\nvalue = [2, 0, 0, 0, 0, 0]"] ;
6 -> 7 ;
8 [label="entropy = 1.0\nsamples = 2\nvalue = [0, 1, 0, 1, 0, 0]"] ;
6 -> 8 ;
}