digraph Tree {
node [shape=box, fontname="helvetica"] ;
edge [fontname="helvetica"] ;
0 [label="number_1 <= 2.5\nentropy = 0.918\nsamples = 12\nvalue = [8, 4]"] ;
1 [label="entropy = 0.0\nsamples = 6\nvalue = [6, 0]"] ;
0 -> 1 [labeldistance=2.5, labelangle=45, headlabel="True"] ;
2 [label="number_2 <= 2.5\nentropy = 0.918\nsamples = 6\nvalue = [2, 4]"] ;
0 -> 2 [labeldistance=2.5, labelangle=-45, headlabel="False"] ;
3 [label="entropy = 0.0\nsamples = 2\nvalue = [2, 0]"] ;
2 -> 3 ;
4 [label="entropy = 0.0\nsamples = 4\nvalue = [0, 4]"] ;
2 -> 4 ;
}